digraph Tree {
node [shape=box, style="filled, rounded", color="black", fontname=helvetica] ;
edge [fontname=helvetica] ;
0 [label=<milk &le; 0.5<br/>gini = 0.749<br/>samples = 67<br/>value = [1, 13, 7, 9, 5, 28, 4]<br/>class = Bug>, fillcolor="#b139e547"] ;
1 [label=<feathers &le; 0.5<br/>gini = 0.776<br/>samples = 39<br/>value = [1, 13, 7, 9, 5, 0, 4]<br/>class = Bird>, fillcolor="#b7e53922"] ;
0 -> 1 [labeldistance=2.5, labelangle=45, headlabel="True"] ;
2 [label=<fins &le; 0.5<br/>gini = 0.746<br/>samples = 26<br/>value = [1, 0, 7, 9, 5, 0, 4]<br/>class = Fish>, fillcolor="#39e5e21b"] ;
1 -> 2 ;
3 [label=<backbone &le; 0.5<br/>gini = 0.685<br/>samples = 17<br/>value = [1, 0, 7, 0, 5, 0, 4]<br/>class = Reptile>, fillcolor="#39e54d2a"] ;
2 -> 3 ;
4 [label=<predator &le; 0.5<br/>gini = 0.486<br/>samples = 12<br/>value = [0, 0, 7, 0, 5, 0, 0]<br/>class = Reptile>, fillcolor="#39e54d49"] ;
3 -> 4 ;
5 [label=<gini = 0.0<br/>samples = 6<br/>value = [0, 0, 6, 0, 0, 0, 0]<br/>class = Reptile>, fillcolor="#39e54dff"] ;
4 -> 5 ;
6 [label=<airborne &le; 0.5<br/>gini = 0.278<br/>samples = 6<br/>value = [0, 0, 1, 0, 5, 0, 0]<br/>class = Amphibian>, fillcolor="#3956e5cc"] ;
4 -> 6 ;
7 [label=<gini = 0.0<br/>samples = 5<br/>value = [0, 0, 0, 0, 5, 0, 0]<br/>class = Amphibian>, fillcolor="#3956e5ff"] ;
6 -> 7 ;
8 [label=<gini = 0.0<br/>samples = 1<br/>value = [0, 0, 1, 0, 0, 0, 0]<br/>class = Reptile>, fillcolor="#39e54dff"] ;
6 -> 8 ;
9 [label=<tail &le; 0.5<br/>gini = 0.32<br/>samples = 5<br/>value = [1, 0, 0, 0, 0, 0, 4]<br/>class = Invertebrate>, fillcolor="#e53986bf"] ;
3 -> 9 ;
10 [label=<gini = 0.0<br/>samples = 1<br/>value = [1, 0, 0, 0, 0, 0, 0]<br/>class = Mammal>, fillcolor="#e58139ff"] ;
9 -> 10 ;
11 [label=<gini = 0.0<br/>samples = 4<br/>value = [0, 0, 0, 0, 0, 0, 4]<br/>class = Invertebrate>, fillcolor="#e53986ff"] ;
9 -> 11 ;
12 [label=<gini = 0.0<br/>samples = 9<br/>value = [0, 0, 0, 9, 0, 0, 0]<br/>class = Fish>, fillcolor="#39e5e2ff"] ;
2 -> 12 ;
13 [label=<gini = 0.0<br/>samples = 13<br/>value = [0, 13, 0, 0, 0, 0, 0]<br/>class = Bird>, fillcolor="#b7e539ff"] ;
1 -> 13 ;
14 [label=<gini = 0.0<br/>samples = 28<br/>value = [0, 0, 0, 0, 0, 28, 0]<br/>class = Bug>, fillcolor="#b139e5ff"] ;
0 -> 14 [labeldistance=2.5, labelangle=-45, headlabel="False"] ;
}